tree
version=v3
num_class=1
num_tree_per_iteration=1
label_index=0
max_feature_idx=4
objective=binary sigmoid:1
feature_names=Column_0 Column_1 Column_2 Column_3 Column_4
feature_infos=[-3.4924404934616677:3.3329375017555081] [-3.8259041347507439:3.4998228139143839] [-3.9554308554012794:3.7104657852476084] [-3.5716648465141545:3.4587754388206333] [-3.7338557248167521:3.206628706510612]
tree_sizes=2619 2646 2633 2641 2649 2628 2654 2636 2640 2648

Tree=0
num_leaves=31
num_cat=0
split_feature=2 1 2 4 2 4 3 3 0 4 4 2 2 0 1 0 3 3 0 0 3 4 1 0 2 4 0 4 3 4
split_gain=7.28234 7.80142 5.76256 6.33325 4.78078 4.21979 4.20486 6.39981 4.15447 3.86321 8.06032 7.62702 7.50085 8.52565 8.55269 6.39608 8.55964 6.66956 8.73746 4.93849 4.586 4.53718 6.53244 6.38967 6.09242 5.88212 4.49447 4.38853 4.91717 5.52282
threshold=1.3910386612216636 -0.86856750738856514 1.1950889467043617 0.6730167910470316 1.0425001650485135 -0.87419524854250918 -0.6013794588333522 0.81465208573265679 -0.93055235088201471 -0.5943939189177202 -0.65763166816361274 -0.20375797063717246 -0.60682709454593542 1.762343290306037 0.80231174353175605 -0.25353690436556925 0.23820228949812522 0.52184560036067829 -0.84849897837498867 -0.14519936618847087 -0.40559685877688106 -0.044953893121345394 1.0468516698839119 1.1028413132845147 -1.2122861955568911 -0.22790678329923134 0.42740634087388618 0.57970811742402384 -0.37788504332452416 0.24821753345683062
decision_type=2 2 2 2 2 2 2 2 2 2 2 2 2 2 2 2 2 2 2 2 2 2 2 2 2 2 2 2 2 2
left_child=2 -2 4 -4 9 -3 -6 -8 -7 10 12 15 -1 14 -14 16 27 -18 -19 -17 -16 23 -23 24 -21 -26 -24 28 29 -11
right_child=1 5 3 -5 6 8 7 -9 -10 11 -12 -13 13 -15 20 19 17 18 -20 21 -22 22 26 -25 25 -27 -28 -29 -30 -31
leaf_value=0.045962618386684612 -0.043664800635054277 0.10293323845635374 0.091137993931757699 0.20921552130417201 -0.038897384729642576 0.11127621629082415 0.084974625151646332 -0.043664800635054277 0.020546332340958796 0.10889250833811828 0.15762609314899287 0.053243576068706187 0.11260518621135923 -0.029795954364765856 0.11313021136515085 -0.0055254733917611265 -0.018874237926913728 0.03538203082886781 0.14495150864086817 0.15544492247331435 0.015011087431550565 0.048858382121823536 0.19180408930179907 0.19470599463552787 0.015551523242690352 0.11493898704742087 0.069227608005093436 0.16819132535337544 0.15299110546317599 -0.018874237926913728
leaf_weight=0 0 0 0 0 0 0 0 0 0 0 0 0 0 0 0 0 0 0 0 0 0 0 0 0 0 0 0 0 0 0
leaf_count=210 42 48 87 23 28 24 59 21 128 42 54 929 339 22 27 36 30 62 55 34 65 324 23 24 57 41 25 73 48 20
internal_value=0 -0.332848 0.0292056 0.478007 0.010562 -0.168194 -0.401798 -0.168194 -0.331541 0.0280955 0.152539 -0.0208491 0.0919857 0.23691 0.298935 0.111099 0.332384 -0.0272152 0.188628 -0.0183759 -0.242193 0.0305201 -0.089609 0.316982 0.144288 -0.108942 0.59936 0.621243 0.36879 -0.00348792
internal_weight=0 0 0 0 0 0 0 0 0 0 0 0 0 0 0 0 0 0 0 0 0 0 0 0 0 0 0 0 0 0
internal_count=3000 242 2758 110 2648 200 108 80 152 2540 717 1823 663 453 431 894 330 147 117 564 92 528 372 156 132 98 48 183 110 62
shrinkage=1


Tree=1
num_leaves=31
num_cat=0
split_feature=2 1 2 4 3 2 2 0 1 4 4 2 2 1 4 1 3 0 0 0 2 4 3 4 4 4 3 0 1 4
split_gain=5.89821 6.31188 4.68332 5.21324 4.12877 3.87266 3.65368 3.34596 5.8463 4.81472 7.10131 6.70263 6.35775 7.48505 5.54569 5.53729 5.51549 6.88617 6.74444 4.62554 5.21671 8.86172 6.68655 5.80873 6.2336 6.12385 4.50905 3.90549 4.79076 4.32365
threshold=1.3910386612216636 -0.86856750738856514 1.1950889467043617 0.6730167910470316 0.70654391574508368 1.0425001650485135 1.1059315485731778 1.662997765389673 0.76831181561277184 -0.5943939189177202 -0.65763166816361274 -0.20375797063717246 -0.60682709454593542 0.80231174353175605 -0.39304168164666287 0.55408375439743829 0.23820228949812522 -0.25353690436556925 1.1028413132845147 1.3658884354396104 0.36792339504669386 0.088110715133060971 -0.53782504402699527 0.25783699915560782 0.81094894868529188 1.3034681784140616 0.54823099551921273 0.96185131913738731 1.0598857836080067 -0.052320117735985786
decision_type=2 2 2 2 2 2 2 2 2 2 2 2 2 2 2 2 2 2 2 2 2 2 2 2 2 2 2 2 2 2
left_child=2 -2 5 -4 -3 7 -7 9 26 10 12 16 -1 -14 15 -13 17 -11 27 20 -16 22 -22 -23 -25 -26 -9 28 29 -19
right_child=1 4 3 -5 -6 6 -8 8 -10 11 -12 14 13 -15 19 -17 -18 18 -20 -21 21 23 -24 24 25 -27 -28 -29 -30 -31
leaf_value=-0.016725494999497739 -0.10044397720901735 -0.032175712547895738 0.02082073794847987 0.12837511039301161 0.033371599552541674 -0.077307702799789865 -0.0032340803400003719 -0.019726470432276183 0.04830127739614283 0.056145607307951088 0.090713439891337122 -0.029072508649454903 0.040687297908474133 -0.024104228744985943 -0.0267884611080067 -0.14142328451493144 -0.0069805775493270387 0.034149532621673626 0.080136817617370834 0.078065534962198688 -0.02756484928464711 -0.086465433388151478 0.089184522777656136 0.032537787555663437 -0.081744644458148885 0.013554426410252139 -0.10272106635751366 -0.084253125278645508 0.074284123429651419 -0.029211125444910276
leaf_weight=0 0 0 0 0 0 0 0 0 0 0 0 0 0 0 0 0 0 0 0 0 0 0 0 0 0 0 0 0 0 0
leaf_count=198 42 148 87 23 52 48 60 80 33 183 51 59 332 91 401 25 371 63 43 24 27 37 72 111 55 53 39 23 32 137
internal_value=0 -0.299466 0.0263495 0.431524 -0.151333 0.00955468 -0.36158 0.0253446 -0.26255 0.0436798 0.187368 -0.0125494 0.128504 0.267244 -0.136661 -0.625102 0.113538 0.255128 0.0676142 -0.0840598 -0.111511 0.065125 0.573438 -0.131449 -0.00757427 -0.349775 -0.469162 -0.0559917 0.0220292 -0.0927632
internal_weight=0 0 0 0 0 0 0 0 0 0 0 0 0 0 0 0 0 0 0 0 0 0 0 0 0 0 0 0 0 0
internal_count=3000 242 2758 110 200 2648 108 2540 152 2388 672 1716 621 423 864 84 852 481 298 780 756 355 99 256 219 108 119 255 232 200
shrinkage=0.1


Tree=2
num_leaves=31
num_cat=0
split_feature=2 1 1 2 1 3 4 0 3 3 3 2 4 2 2 0 3 4 3 4 0 3 4 3 4 3 3 2 0 0
split_gain=4.78347 5.15263 3.90471 8.64517 3.57715 8.2771 3.36729 3.41216 3.27937 5.56436 3.05681 2.72436 5.05092 4.57717 10.1308 4.51913 5.68504 7.93066 8.29767 5.04731 3.95185 3.88966 3.0637 3.94892 3.51869 3.43732 6.20503 6.51257 5.08404 3.62874
threshold=1.3910386612216636 -0.86856750738856514 -1.6250245901676552 0.56756395366637591 -1.4788037750637317 0.14356942116175228 -0.87419524854250918 -0.93055235088201471 0.19406644264101597 -0.33260768921804279 -0.0047853411517601785 1.1950889467043617 0.6730167910470316 0.6180089974687103 0.58437640656063106 -1.2890367342104445 -0.68286868175367343 -0.80475260815653649 -1.0402642712151489 0.6730167910470316 0.21792294209959465 0.02109233882793158 0.81094894868529188 0.54823099551921273 0.59615783190849736 0.30458438434983753 -0.12854889490248636 0.7870243030137225 0.57201629884946448 1.0335381844538831
decision_type=2 2 2 2 2 2 2 2 2 2 2 2 2 2 2 2 2 2 2 2 2 2 2 2 2 2 2 2 2 2
left_child=2 -2 3 8 5 -4 10 -8 9 -1 -3 13 20 14 -6 21 17 -17 19 -19 -13 -15 24 -24 25 26 27 -18 -27 -30
right_child=1 6 4 -5 11 -7 7 -9 -10 -11 -12 12 -14 15 -16 16 22 18 -20 -21 -22 -23 23 -25 -26 28 -28 -29 29 -31
leaf_value=0.023433047317470229 -0.090845948246328787 -0.027106706674065301 0.022208031459976987 0.13473855586460581 0.0027328165249112129 -0.12947746147223671 0.041094335688817013 -0.041160365737435173 0.047288409502754702 -0.10840113082670222 0.075370447964244566 -0.028665136453464513 0.11767411675480188 0.1028532582095289 0.11639185390954139 0.035787274293223238 -0.11053978111392626 -0.090854355656231137 -0.16604193958284327 0.032910012458992076 0.059271429673464361 -0.017665157771551324 -0.085430425715123159 0.016762657725616793 0.079623061195900527 0.0048924298854591663 0.081319599086117994 0.026595214961136666 -0.14716242486727232 -0.030495582224354209
leaf_weight=0 0 0 0 0 0 0 0 0 0 0 0 0 0 0 0 0 0 0 0 0 0 0 0 0 0 0 0 0 0 0
leaf_count=36 42 20 31 28 1977 27 24 128 49 20 28 46 23 22 32 26 21 33 35 22 37 21 41 24 21 62 40 41 20 23
internal_value=0 -0.269736 0.0237901 0.358614 0.00682539 -0.485099 -0.136171 -0.281942 0.0948669 -0.236629 0.326264 0.0179396 0.333267 0.00443608 0.0454134 -0.177622 -0.242524 -0.617633 -0.898548 -0.413845 0.105355 0.440082 -0.0939474 -0.477039 0.0155061 -0.0638011 0.198023 -0.198661 -0.318282 -0.847509
internal_weight=0 0 0 0 0 0 0 0 0 0 0 0 0 0 0 0 0 0 0 0 0 0 0 0 0 0 0 0 0 0
internal_count=3000 242 2758 133 2625 58 200 152 105 56 48 2567 106 2461 2009 452 409 116 90 55 83 43 293 65 228 207 102 62 105 43
shrinkage=0.1


Tree=3
num_leaves=31
num_cat=0
split_feature=0 1 2 1 1 2 1 1 4 4 0 4 2 2 2 2 4 3 3 0 0 4 4 3 0 2 3 2 2 0
split_gain=4.0128 4.70296 4.44788 4.81918 3.08459 6.65643 3.99475 6.66504 4.27046 8.9848 4.20274 7.9951 4.79137 7.14296 6.08797 3.58968 3.42868 3.0936 4.79889 4.94277 4.52562 4.80761 4.05455 3.09503 4.91263 4.70446 3.8652 5.44067 3.63259 4.26917
threshold=-2.1608199884825319 -0.18419264351719949 1.3910386612216636 -0.86856750738856514 -1.6250245901676552 0.56756395366637591 0.027572407255178854 0.058608456847120731 -1.7293845022891365 -0.82221866181150582 -0.52925942613467203 -1.0395952218378788 0.30149018061880878 0.57610974068949405 -0.56444866422510265 0.21620726896597017 -0.37353869006829549 1.0186549335221584 1.2074173678873434 -0.10396724949139273 0.33657320317729805 0.66165456377919818 0.14757615676178956 0.61595053212699302 -0.54044028783520304 0.47739302804370692 0.40499149863721817 -0.019852066627570667 -1.8801040708073622 0.98261681354132036
decision_type=2 2 2 2 2 2 2 2 2 2 2 2 2 2 2 2 2 2 2 2 2 2 2 2 2 2 2 2 2 2
left_child=1 -1 4 -4 5 -2 8 16 15 10 11 -10 14 -14 -12 -6 -8 23 19 -19 21 22 -20 26 -25 -26 28 -28 -11 -30
right_child=2 -3 3 -5 6 -7 7 -9 9 17 12 -13 13 -15 -16 -17 -18 18 20 -21 -22 -23 -24 24 25 -27 27 -29 29 -31
leaf_value=0.13178685691292583 0.0085521928364122625 0.0044811691578358435 -0.090038409066126673 -0.014259730190887918 -0.024017695041654567 0.12051574817150024 0.026137801520361832 0.0050875333352364063 -0.067832767857425938 0.06174759529122717 0.019856185847853966 0.077356807714597034 -0.093050230101347248 0.060705821586148762 0.12045459546032347 -0.13047820186618683 0.14084890733357089 0.13542071812886683 -0.049682974895015677 0.0025613165634657594 0.041414392931483503 -0.11515373402168508 0.062823811587052705 0.024751390962020652 -0.10562440897946881 0.0052832398381491936 -0.020883262676765074 0.091904238242207753 -0.028724602284837048 0.013083737096012224
leaf_weight=0 0 0 0 0 0 0 0 0 0 0 0 0 0 0 0 0 0 0 0 0 0 0 0 0 0 0 0 0 0 0
leaf_count=20 105 28 41 198 35 27 20 1252 39 22 43 25 20 31 55 20 22 22 33 23 45 23 21 26 57 21 37 32 537 120
internal_value=0 0.575182 -0.00924306 -0.271338 0.0138422 0.312946 -0.00142209 0.0771989 -0.0804659 -0.0560824 0.318314 -0.11122 0.502848 0.00401561 0.761828 -0.626842 0.862871 -0.13429 0.114966 0.674366 -0.0911166 -0.385559 -0.0589991 -0.183187 -0.506874 -0.758008 -0.138127 0.313485 -0.184074 -0.21088
internal_weight=0 0 0 0 0 0 0 0 0 0 0 0 0 0 0 0 0 0 0 0 0 0 0 0 0 0 0 0 0 0
internal_count=3000 48 2952 239 2713 132 2581 1294 1287 1232 213 64 149 51 98 55 42 1019 167 45 122 77 54 852 104 78 748 69 679 657
shrinkage=0.1


Tree=4
num_leaves=31
num_cat=0
split_feature=0 1 2 1 4 2 2 3 4 4 3 1 2 1 1 4 4 2 2 2 0 1 0 0 4 1 3 4 3 0
split_gain=3.26681 3.87054 3.61393 3.98608 3.00853 2.92088 2.80732 2.89195 2.76286 2.73031 2.48794 2.40842 5.12695 3.10762 5.54009 3.42813 7.55863 3.6845 3.28201 9.92653 5.76945 8.59527 6.39281 7.31473 6.07789 5.89727 5.55178 4.90292 4.50845 4.33578
threshold=-2.1608199884825319 -0.18419264351719949 1.3910386612216636 -0.86856750738856514 -0.87419524854250918 1.3457525628534446 2.0558934454987132 0.70654391574508368 0.55220190870018182 0.014171907840324656 -0.0047853411517601785 -1.6250245901676552 0.56756395366637591 0.027572407255178854 0.058608456847120731 -1.6183494605680522 -0.82221866181150582 0.21620726896597017 0.013684352527709311 0.13327250010230179 0.61990922819379535 0.85206804150952331 -0.18024199399103305 -0.49192145615085731 0.14757615676178956 0.54699774144006086 -0.15787558118085637 -0.46483715502647954 0.22153873030948359 0.38075372744183228
decision_type=2 2 2 2 2 2 2 2 2 2 2 2 2 2 2 2 2 2 2 2 2 2 2 2 2 2 2 2 2 2
left_child=1 -1 5 9 10 11 7 8 -6 -4 -5 12 -2 15 -15 17 -17 -13 -16 29 22 26 23 25 27 28 -22 -24 -21 -20
right_child=2 -3 3 4 6 -7 -8 -9 -10 -11 -12 13 -14 14 18 16 -18 -19 19 20 21 -23 24 -25 -26 -27 -28 -29 -30 -31
leaf_value=0.11987249200753192 0.0077001037175688999 0.0040340000759627624 -0.13314319684817111 -0.022943850491662698 -0.084781182011318429 0.07427967156223933 0.033025586304260314 0.010399007324276467 -0.012017304533659226 -0.028523857851246743 0.069559791610756955 -0.019796621982855617 0.1081244144076537 0.07810444803511668 0.013226834397728768 0.030432294049144454 -0.012269552862923501 -0.12141781926304314 -0.036526573400460789 0.02023122577454509 -0.13445794353546664 0.023928602248470314 0.048851325701169228 -0.071388972097224918 0.0030786693232379638 -0.016509120583074705 -0.030244348110118103 0.15207137707464824 0.13595815482708651 -0.13665817379525433
leaf_weight=0 0 0 0 0 0 0 0 0 0 0 0 0 0 0 0 0 0 0 0 0 0 0 0 0 0 0 0 0 0 0
leaf_count=20 105 28 21 20 57 22 26 34 33 20 28 45 26 42 679 200 1014 21 43 33 34 68 51 51 63 83 52 29 23 29
internal_value=0 0.520152 -0.00828876 -0.244791 -0.128324 0.012516 -0.267706 -0.393053 -0.58096 -0.821094 0.308589 0.00659141 0.272372 -0.00694032 0.0628759 -0.0767929 -0.0525901 -0.521472 0.0386701 -0.0750656 0.0277937 -0.293165 0.176108 -0.0647543 0.496291 0.173444 -0.71459 0.863179 0.676799 -0.768463
internal_weight=0 0 0 0 0 0 0 0 0 0 0 0 0 0 0 0 0 0 0 0 0 0 0 0 0 0 0 0 0 0
internal_count=3000 48 2952 239 198 2713 150 124 90 41 48 2691 131 2560 1280 1280 1214 66 1238 559 487 154 333 190 143 139 86 80 56 72
shrinkage=0.1


Tree=5
num_leaves=31
num_cat=0
split_feature=0 1 2 1 4 4 3 1 3 3 2 4 4 2 2 3 4 1 0 4 0 3 1 1 3 0 1 2 2 4
split_gain=2.66839 3.21846 2.94395 3.43849 4.29476 3.76635 3.60373 3.38458 4.83649 2.72491 2.65545 4.03095 3.69618 2.87675 5.78191 5.31055 9.35041 6.37642 4.18561 3.88356 3.79482 9.75708 3.0734 3.9717 2.83019 2.59194 3.54978 2.94524 5.63381 7.82801
threshold=-2.1608199884825319 -0.18419264351719949 1.3910386612216636 -0.41472518041248624 0.97062180853296443 0.24821753345683062 0.51288267805676968 0.1790122468679459 -0.1955576166419212 1.0064577941963815 1.1950889467043617 0.57970811742402384 0.11127062187848416 0.7752095897591641 0.74539907357942325 -0.65099815276951734 0.84068069943704404 0.40654238001626725 0.42740634087388618 1.2444854399787291 -0.36775868789023264 0.89073987502078722 -0.1968812089274137 -0.88368270359856327 0.24808552973607212 1.662997765389673 0.76831181561277184 0.48830450471577075 0.6180089974687103 0.24821753345683062
decision_type=2 2 2 2 2 2 2 2 2 2 2 2 2 2 2 2 2 2 2 2 2 2 2 2 2 2 2 2 2 2
left_child=1 -1 10 5 6 -4 7 -5 -9 -8 13 12 -12 14 25 17 20 18 -15 -18 24 22 23 -22 -17 27 -27 -2 29 -29
right_child=2 -3 3 4 -6 -7 9 8 -10 -11 11 -13 -14 15 -16 16 19 -19 -20 -21 21 -23 -24 -25 -26 26 -28 28 -30 -31
leaf_value=0.10978302187463687 0.00033543955303755291 0.0036314002078061515 -0.090493510242774799 0.036397879713090449 -0.082139706168823184 0.0043314104557973581 0.097651146941016481 0.0048036028203609056 -0.11415848299065692 0.0048970291398083747 0.037919220388440936 0.10290794878150865 -0.057417563887509217 -0.15204607069740914 0.10077808170972402 0.014989950424644932 -0.14042282011772958 0.010879644944463468 -0.034060829804352585 -0.031719885573806131 0.008915096800641625 -0.10388129393048676 -0.0081948786790240306 0.13102862955234687 0.096330123441880841 -0.042109247692183008 0.039256339933738317 0.089043413051078588 -0.0084638020287524287 -0.013916319329430771
leaf_weight=0 0 0 0 0 0 0 0 0 0 0 0 0 0 0 0 0 0 0 0 0 0 0 0 0 0 0 0 0 0 0
leaf_count=20 1885 28 50 31 25 26 25 32 24 26 57 26 23 31 24 34 22 30 20 33 22 29 41 21 35 107 27 84 116 46
internal_value=0 0.47179 -0.00744699 -0.221379 -0.0584008 -0.578129 0.0802602 -0.167397 -0.461225 0.503862 0.011312 0.324529 0.104674 -0.00125847 0.0235344 -0.180205 -0.0286898 -0.624405 -1.05775 -0.752752 0.190798 -0.0357063 0.311232 0.68647 0.56187 0.0132195 -0.257235 0.0302237 0.236939 0.524157
internal_weight=0 0 0 0 0 0 0 0 0 0 0 0 0 0 0 0 0 0 0 0 0 0 0 0 0 0 0 0 0 0
internal_count=3000 48 2952 239 163 76 138 87 56 51 2713 106 80 2607 2289 318 237 81 51 55 182 113 84 43 69 2265 134 2131 246 130
shrinkage=0.1


Tree=6
num_leaves=31
num_cat=0
split_feature=2 2 2 3 1 1 2 0 0 4 3 3 4 1 4 0 0 0 0 3 3 1 4 3 1 4 1 1 4 4
split_gain=2.57392 7.67087 5.91601 5.40259 4.07925 6.19594 6.46724 4.92752 4.02492 4.87841 4.74249 4.29523 8.63457 7.7868 5.60267 6.40883 4.71665 4.12618 4.11004 5.17949 4.87801 4.45047 5.33339 4.32127 3.49785 3.42319 6.30938 5.66778 4.42034 3.32806
threshold=0.013684352527709311 0.13327250010230179 -0.029920356845869401 -0.61693804871596414 -1.6250245901676552 -1.1967120787716552 0.17588442117645303 0.42740634087388618 1.762343290306037 -2.0559494634590085 0.54823099551921273 -0.72367313630847496 0.97062180853296443 0.97953278200862159 1.1722456130751813 0.61077179710835205 -0.24255936629042138 -0.34086378856580252 0.61077179710835205 0.46061444297229232 -0.15787558118085637 0.74914466773179145 -0.40461879144259821 0.19406644264101597 0.23910591795244171 0.70615831889490299 1.2214387551733035 -1.0601754905104948 1.1476922031512011 -0.052320117735985786
decision_type=2 2 2 2 2 2 2 2 2 2 2 2 2 2 2 2 2 2 2 2 2 2 2 2 2 2 2 2 2 2
left_child=2 3 25 -2 -3 7 -7 -6 9 -8 -10 13 18 16 -14 17 -11 -16 21 20 24 -13 -23 -22 -20 29 27 28 -27 -1
right_child=1 4 -4 -5 5 6 8 -9 10 11 -12 12 14 -15 15 -17 -18 -19 19 -21 23 22 -24 -25 -26 26 -28 -29 -30 -31
leaf_value=0.0065665358984543058 0.01064884750575925 0.050100581696782547 0.069834517146448213 -0.071624615401127745 -0.090026438941390008 0.090715007058825736 0.096507276738504247 0.013054401540764985 -0.01233524574360635 -0.0026413641273145046 -0.13265551725557195 0.034932043984960075 -0.11193967919765822 0.055555882297184528 0.0042339318542043347 0.058193099165490286 -0.064582217289129468 -0.096914484057285311 0.01955719780424281 -0.051582674756128592 0.12062352943419073 -0.049633564794373447 0.028075262631594156 0.011640851596902889 -0.090409473110389271 0.10968967442665956 0.1031930130841075 -0.0028265586352757078 0.006059164100097437 -0.016141702139803739
leaf_weight=0 0 0 0 0 0 0 0 0 0 0 0 0 0 0 0 0 0 0 0 0 0 0 0 0 0 0 0 0 0 0
leaf_count=691 45 62 56 111 57 31 21 28 39 82 20 381 34 41 29 31 126 37 25 76 24 64 80 38 22 37 34 233 30 415
internal_value=0 -0.0586726 0.0589432 -0.478948 -0.00961437 -0.0335934 0.00344799 -0.559247 -0.0206259 0.00654428 -0.532231 -0.0119662 0.0567274 -0.24377 -0.416975 -0.171358 -0.401753 -0.524953 0.144328 -0.113321 0.167795 0.235169 -0.0651254 0.537947 -0.321169 0.0340852 0.21198 0.119366 0.633628 -0.0196236
internal_weight=0 0 0 0 0 0 0 0 0 0 0 0 0 0 0 0 0 0 0 0 0 0 0 0 0 0 0 0 0 0
internal_count=3000 1504 1496 156 1348 1286 1201 85 1170 1111 59 1090 841 249 131 97 208 66 710 185 109 525 144 62 47 1440 334 300 67 1106
shrinkage=0.1


Tree=7
num_leaves=31
num_cat=0
split_feature=2 1 4 1 0 2 2 1 1 2 3 3 1 3 2 4 0 0 0 0 0 4 1 3 3 4 3 1 4 1
split_gain=2.14229 2.76225 5.29417 2.29855 2.28855 3.17095 4.43636 2.10155 1.7852 4.49693 2.7013 4.45813 2.38366 5.95489 2.07321 4.40115 4.53898 3.69321 6.68215 3.98656 5.65544 5.21119 3.61706 4.4319 3.5456 3.50266 6.0148 5.68167 4.80616 3.85572
threshold=1.5066215513302528 -0.043114863540708072 0.29180296728872823 -0.70580690268793445 0.98261681354132036 2.0558934454987132 1.8651372681183704 0.64941831165539299 -1.6250245901676552 0.56756395366637591 0.19406644264101597 -0.33260768921804279 -1.4788037750637317 0.14356942116175228 -0.14702208543210635 -0.6353268199996448 1.7108131486520113 1.2342482361894034 0.61077179710835205 -0.21875033963248211 -0.92134327220707235 -0.93315413181499585 -0.20534066475588877 0.086938613256367522 0.58063330201810692 -0.38618464500076233 -1.4838133246627658 0.52733630776019802 -0.44105477533831511 -0.1210586374224812
decision_type=2 2 2 2 2 2 2 2 2 2 2 2 2 2 2 2 2 2 2 2 2 2 2 2 2 2 2 2 2 2
left_child=8 2 3 -2 5 6 7 -3 9 10 11 -1 13 -10 -14 16 17 18 19 20 -16 24 -22 -24 -21 27 -27 28 29 -17
right_child=1 4 -4 -5 -6 -7 -8 -9 12 -11 -12 -13 14 -15 15 25 -18 -19 -20 21 22 -23 23 -25 -26 26 -28 -29 -30 -31
leaf_value=0.017149483471396727 -0.13133135988813413 0.068269075457802655 0.024271654448314903 -0.046503254137162518 -0.059596328974919427 0.080252611772786475 -0.083961791653655499 -0.019863640165443272 0.020002942592045297 0.095083746350982684 0.039336246849626305 -0.10091638081274078 0.0072407386293592947 -0.10915015283689651 0.053021959005299983 -0.025135103694297195 -0.059682248095659432 0.092421443034164955 -0.047614391432792801 -0.0082937395081448071 -0.07414065524053437 0.1068950343550744 0.07116128296640363 -0.047572919803000775 0.090330398205555773 -0.067381021415362563 -0.0021409923705833591 -0.10481183934042537 -0.098851579764719144 0.07552338337889325
leaf_weight=0 0 0 0 0 0 0 0 0 0 0 0 0 0 0 0 0 0 0 0 0 0 0 0 0 0 0 0 0 0 0
leaf_count=36 26 24 26 27 21 22 21 20 31 30 49 20 1209 27 62 40 31 27 57 50 37 48 24 27 21 61 841 40 20 25
internal_value=0 -0.208866 -0.498009 -0.869699 -0.00120037 0.142516 -0.0802879 0.282121 0.0139372 0.240597 0.0493068 -0.251787 0.00264135 -0.400492 0.0115441 -0.0408763 0.143082 0.207822 0.148656 0.281536 0.0635478 0.557082 -0.263497 0.0838922 0.209792 -0.109405 -0.0656907 -0.424411 -0.130529 0.135337
internal_weight=0 0 0 0 0 0 0 0 0 0 0 0 0 0 0 0 0 0 0 0 0 0 0 0 0 0 0 0 0 0
internal_count=3000 187 79 53 108 87 65 44 2813 135 105 56 2678 58 2620 1411 384 353 326 269 150 119 88 51 71 1027 902 125 85 65
shrinkage=0.1


Tree=8
num_leaves=31
num_cat=0
split_feature=0 3 2 1 4 3 3 0 4 2 2 1 3 2 1 1 3 0 2 2 3 1 2 0 1 3 0 3 0 4
split_gain=1.96809 3.03428 2.01326 2.42284 3.18616 8.37143 6.19781 5.47153 2.60748 2.23667 1.51369 1.4096 4.28293 4.0798 4.05118 3.54729 3.48957 3.24234 3.2349 7.64216 5.28309 5.48406 5.10096 4.93286 4.52969 4.8306 4.33485 3.96451 3.74638 5.56376
threshold=-2.1608199884825319 0.28335006463243539 1.3910386612216636 -0.41472518041248624 0.33155416694350986 -0.034412540582714861 0.12431380370625307 0.45018452669894032 0.24821753345683062 1.3457525628534446 1.6206303049246067 0.027572407255178854 1.0186549335221584 -1.6363155503811029 0.058608456847120731 -0.42735238838289019 1.226348628193185 -0.54044028783520304 0.42651874746940482 0.6180089974687103 0.6284477238706806 -0.73229493337598639 0.51895469596483601 -1.2221024353064596 -1.4996104258169434 -0.65099815276951734 0.42740634087388618 0.82925736184687826 -0.71912393870030533 1.0344041612999024
decision_type=2 2 2 2 2 2 2 2 2 2 2 2 2 2 2 2 2 2 2 2 2 2 2 2 2 2 2 2 2 2
left_child=1 -1 9 8 6 -6 10 -8 -4 11 -5 12 13 15 -13 -2 -14 -18 20 22 28 -22 -20 -21 -25 26 -26 -23 29 -15
right_child=2 -3 3 4 5 -7 7 -9 -10 -11 -12 14 16 18 -16 -17 17 -19 19 23 21 27 -24 24 25 -27 -28 -29 -30 -31
leaf_value=0.085771615318855923 0.0089615206483060449 -0.01710808925726966 -0.076645407758558382 0.0068215613031376828 0.048004839686568483 -0.10316467183063936 0.11323724914806613 -0.019466370934610806 0.0026886114326067426 0.065321713510445495 -0.065508081737321769 0.067120893595611755 0.061626599695618338 -0.062419905628650213 0.0031592268442906198 0.1100993839948979 -0.039129517801813708 0.023801602244057217 0.0072826975742037092 0.08232217898693775 -0.0064735605072055481 -0.16501106634645751 0.10217550763143649 0.068855892992891493 -0.11735538365117491 -0.010561799945090655 -0.006193958059794862 -0.052117273865726246 -0.0057703079861606485 0.044235365030101531
leaf_weight=0 0 0 0 0 0 0 0 0 0 0 0 0 0 0 0 0 0 0 0 0 0 0 0 0 0 0 0 0 0 0
leaf_count=27 46 21 50 20 25 36 34 20 26 22 28 42 63 109 1238 20 46 116 46 20 37 25 46 21 41 135 22 25 569 24
internal_value=0 0.407904 -0.00636268 -0.184264 -0.0477064 -0.410429 0.170015 0.639096 -0.487467 0.00913049 -0.35405 0.00396225 -0.0398523 -0.0880807 0.0522273 0.396388 0.214318 0.0585187 -0.116756 0.0511494 -0.186245 -0.653021 0.544186 -0.139841 -0.227402 -0.319628 -0.78296 -1.08501 -0.128528 -0.43162
internal_weight=0 0 0 0 0 0 0 0 0 0 0 0 0 0 0 0 0 0 0 0 0 0 0 0 0 0 0 0 0 0
internal_count=3000 48 2952 239 163 61 102 54 76 2713 48 2691 1411 1186 1280 66 225 162 1120 331 789 87 92 239 219 198 63 50 702 133
shrinkage=0.1


Tree=9
num_leaves=31
num_cat=0
split_feature=2 2 2 4 1 2 0 2 3 3 4 1 3 0 2 2 3 3 1 4 0 1 0 2 0 2 1 1 2 1
split_gain=1.81654 6.08137 4.97399 4.72896 4.05815 2.76202 6.10241 3.71286 2.99374 3.70272 3.62582 7.97727 5.05693 9.17411 6.69508 5.90481 3.47327 8.30986 4.88407 4.74407 3.63186 3.16477 2.98167 3.39099 5.26267 4.3476 6.31755 6.71118 2.74062 3.24777
threshold=0.013684352527709311 0.13327250010230179 -0.029920356845869401 -1.2074236047955627 -1.0796551845633149 -0.10169141730268892 0.60306607273419677 -0.073021148874211253 -1.9549470763706565 -1.7021911714480069 0.56320272939424076 1.1650994483154118 -0.1886351599854077 -0.20929083986982497 -0.92866816976777733 -0.48144325657905657 -1.2317754217683639 -1.0523546157257502 1.5284416549470803 0.44657366220706757 0.168193463043769 1.7794028256268823 -0.96507081519565585 -0.33168558922108343 -0.39807575182544175 -1.0782229229707205 -0.99133445229540296 0.23015243161112275 0.19363898024582879 -1.6250245901676552
decision_type=2 2 2 2 2 2 2 2 2 2 2 2 2 2 2 2 2 2 2 2 2 2 2 2 2 2 2 2 2 2
left_child=2 3 5 -2 -5 8 7 -7 -1 -10 16 12 13 -12 -15 -16 20 -18 19 -19 -11 -20 -14 24 -24 -26 -27 -28 -3 -30
right_child=1 28 -4 4 -6 6 -8 -9 9 10 11 -13 22 14 15 -17 17 18 21 -21 -22 -23 23 -25 25 26 27 -29 29 -31
leaf_value=0.060499305421549215 0.041722955919498241 0.041437257363840033 0.063761390849086635 0.017675247614255093 -0.073335085842822528 -0.13397564943968024 0.043568986596291437 -0.029988361868783443 -0.068890091461316277 0.089888868387614576 0.10993368741448428 0.11678221063359824 -0.06296138890235338 -0.078193908449755836 0.10698922256444565 -0.034540236630557108 -0.11250587257578244 0.0061935490021322289 -0.12050153232062932 -0.056373559014499447 -0.0058020302650981159 -0.010322563723745661 0.10017995319406625 -0.0598672704894209 -0.056653734471547063 0.1197306322031301 -0.093139799762161052 0.059981883145028614 0.046417396919176901 -0.0046324791533702272
leaf_weight=0 0 0 0 0 0 0 0 0 0 0 0 0 0 0 0 0 0 0 0 0 0 0 0 0 0 0 0 0 0 0
leaf_count=38 23 60 56 24 109 22 29 37 28 33 51 33 33 28 27 21 28 749 22 52 31 20 25 28 38 21 22 24 56 1232
internal_value=0 -0.0495259 0.0495067 -0.424055 -0.568931 0.0267454 -0.31729 -0.68724 0.0491874 0.0331485 0.0488591 0.222933 0.125949 0.436501 -0.00277376 0.45067 -0.0163429 -0.0494498 -0.0137693 0.021205 0.435069 -0.68011 -0.0803098 0.0341106 0.170601 -0.0254454 0.282027 -0.132198 -0.00555898 -0.0253053
internal_weight=0 0 0 0 0 0 0 0 0 0 0 0 0 0 0 0 0 0 0 0 0 0 0 0 0 0 0 0 0 0
internal_count=3000 1504 1496 156 133 1440 88 59 1352 1314 1286 351 318 127 76 48 935 871 843 801 64 42 191 158 130 105 67 46 1348 1288
shrinkage=0.1


end of trees

feature importances:
Column_2=67
Column_4=61
Column_3=59
Column_1=58
Column_0=55

parameters:
[boosting: gbdt]
[objective: binary]
[metric: none,binary]
[tree_learner: serial]
[device_type: cpu]
[data: ]
[valid: ]
[num_iterations: 100]
[learning_rate: 0.1]
[num_leaves: 31]
[num_threads: -1]
[max_depth: -1]
[min_data_in_leaf: 20]
[min_sum_hessian_in_leaf: 0.001]
[bagging_fraction: 1]
[bagging_freq: 0]
[bagging_seed: 3]
[feature_fraction: 1]
[feature_fraction_seed: 2]
[early_stopping_round: 0]
[max_delta_step: 0]
[lambda_l1: 0]
[lambda_l2: 0]
[min_gain_to_split: 0]
[drop_rate: 0.1]
[max_drop: 50]
[skip_drop: 0.5]
[xgboost_dart_mode: 0]
[uniform_drop: 0]
[drop_seed: 4]
[top_rate: 0.2]
[other_rate: 0.1]
[min_data_per_group: 100]
[max_cat_threshold: 32]
[cat_l2: 10]
[cat_smooth: 10]
[max_cat_to_onehot: 4]
[top_k: 20]
[monotone_constraints: ]
[feature_contri: ]
[forcedsplits_filename: ]
[refit_decay_rate: 0.9]
[verbosity: -1]
[max_bin: 255]
[min_data_in_bin: 3]
[bin_construct_sample_cnt: 200000]
[histogram_pool_size: -1]
[data_random_seed: 1]
[output_model: LightGBM_model.txt]
[snapshot_freq: -1]
[input_model: ]
[output_result: LightGBM_predict_result.txt]
[initscore_filename: ]
[valid_data_initscores: ]
[pre_partition: 0]
[enable_bundle: 1]
[max_conflict_rate: 0]
[is_enable_sparse: 1]
[sparse_threshold: 0.8]
[use_missing: 1]
[zero_as_missing: 0]
[two_round: 0]
[save_binary: 0]
[enable_load_from_binary_file: 1]
[header: 0]
[label_column: ]
[weight_column: ]
[group_column: ]
[ignore_column: ]
[categorical_feature: ]
[predict_raw_score: 0]
[predict_leaf_index: 0]
[predict_contrib: 0]
[num_iteration_predict: -1]
[pred_early_stop: 0]
[pred_early_stop_freq: 10]
[pred_early_stop_margin: 10]
[convert_model_language: ]
[convert_model: gbdt_prediction.cpp]
[num_class: 1]
[is_unbalance: 0]
[scale_pos_weight: 1]
[sigmoid: 1]
[boost_from_average: 1]
[reg_sqrt: 0]
[alpha: 0.9]
[fair_c: 1]
[poisson_max_delta_step: 0.7]
[tweedie_variance_power: 1.5]
[max_position: 20]
[label_gain: ]
[metric_freq: 1]
[is_provide_training_metric: 0]
[eval_at: ]
[num_machines: 1]
[local_listen_port: 12400]
[time_out: 120]
[machine_list_filename: ]
[machines: ]
[gpu_platform_id: -1]
[gpu_device_id: -1]
[gpu_use_dp: 0]

end of parameters
